window.BUNDLED_HONORED_WORM_PAYLOADS = window.BUNDLED_HONORED_WORM_PAYLOADS || [];
window.BUNDLED_HONORED_WORM_PAYLOADS.push({
  key: 'c-3471-g-146-age-09281f-20260330-152456.json',
  payload: {
  "kind": "neuro-worm-sim-brain-bank-specimen",
  "version": 1,
  "exportedAt": "2026-03-30T22:24:56.454Z",
  "metadata": {
    "displayName": "Longest-Lived C-3471",
    "origin": "sampled",
    "fileName": "c-3471-g-146-age-09281f-20260330-152456.json",
    "sourceCreatureId": 3471,
    "sampledTick": 736397,
    "ageFrames": 9281,
    "generation": 146,
    "hue": 2.2500914849393894,
    "colorGenes": {
      "hue": 2.2500914849393894,
      "saturation": 92,
      "lightness": 62,
      "segmentShadeDepth": 10,
      "highlightHueShift": 0,
      "highlightSaturation": 100,
      "highlightLightness": 82,
      "eggHueShift": 0,
      "eggSaturation": 48,
      "eggLightness": 84
    },
    "segmentGene": 3
  },
  "specimen": {
    "x": 129.84221023246246,
    "y": 85.24201627625533,
    "heading": -3685.6501731090148,
    "hue": 2.2500914849393894,
    "colorGenes": {
      "hue": 2.2500914849393894,
      "saturation": 92,
      "lightness": 62,
      "segmentShadeDepth": 10,
      "highlightHueShift": 0,
      "highlightSaturation": 100,
      "highlightLightness": 82,
      "eggHueShift": 0,
      "eggSaturation": 48,
      "eggLightness": 84
    },
    "energy": 89.90603693086233,
    "age": 9281,
    "generation": 146,
    "segmentGene": 3,
    "lifeStage": "adult",
    "brain": {
      "weights": [
        [
          [
            -1.4372508802979314,
            -1.1194684894760916,
            0.9398502665590296,
            -0.5001476794615587,
            0.31663806852720655,
            -0.08386839210410366,
            -0.9752897829418001,
            -1.3209918176605915,
            0.1952413914611319,
            0.24017712317118678,
            0.5416212145761773,
            -1.4587375534795264,
            -0.12102244849523969,
            -1.2556460742166025,
            -0.6996624302050354,
            -1.1231521993409699
          ],
          [
            1.3313046243729,
            -0.2715885240222003,
            -0.8605512441228163,
            -1.1605055711470034,
            0.934370623462379,
            0.018618075726592076,
            -0.03604738087175474,
            0.8659720048002044,
            -0.7874344032162565,
            -1.4317455357077087,
            0.11548886951868217,
            -1.6,
            -0.019991554164046466,
            -0.2270203981650115,
            0.05569961607741525,
            0.00555903195181906
          ],
          [
            -1.3501070300338052,
            0.6940619178815903,
            0.24748586830402897,
            -0.38599079207579845,
            -0.5856292103627291,
            0.00831448023385814,
            -1.0910226999188746,
            0.6967531704782124,
            1.6,
            -0.5791281412711848,
            0.37517324205714625,
            1.334056598740336,
            -0.10193023915495536,
            -0.4728866298398995,
            0.9410944831338155,
            0.29652891309524415
          ],
          [
            -0.36124280809121867,
            0.12330365812774377,
            -0.488098259111168,
            -0.9094145202162403,
            0.6674443873712856,
            1.1164499075765282,
            -0.7465989212547522,
            0.7906550031575248,
            -0.9096714077427239,
            -0.23780641936893607,
            1.4167409136248925,
            -1.3209852658553842,
            0.23580455785802748,
            -1.3785040651668663,
            0.16935227348129755,
            0.013117159522412547
          ],
          [
            -0.6242906727188298,
            -0.8239138309606714,
            -1.0078409403251896,
            0.866681336427124,
            1.308324906924615,
            0.04885986489703281,
            0.47765594879881923,
            1.2304118499259027,
            -0.7834263533071102,
            -0.4279008653263314,
            -0.4889063985427269,
            1.2036581508222037,
            -0.14076955277799857,
            1.2834606808027702,
            0.9771536983988245,
            -0.04441790137018964
          ],
          [
            -1.1421019827718168,
            0.3799125504616857,
            0.5065332639219089,
            -1.4584480385665706,
            -0.8769258675136127,
            0.8403824451156783,
            -0.17696257224612094,
            -1.3045769560384515,
            -1.2044830817813152,
            -0.585930203760314,
            -1.5883297362885296,
            0.24762457593826293,
            0.45353293025016694,
            0.07747766858122668,
            1.2337120103100407,
            -0.7268033961525613
          ],
          [
            1.0863675987527666,
            -1.0494901156935232,
            0.13284097691784053,
            -1.5743762082313597,
            0.4269044914707284,
            -0.8907210770007068,
            0.5731031982442866,
            0.43868795399374083,
            -0.35337401247297173,
            0.24868349756924013,
            1.0390691593493544,
            0.24870008860049414,
            1.3781172546878968,
            0.9681445916276525,
            1.585136426828132,
            -0.4611975249156642
          ],
          [
            0.14764269714745035,
            0.7355965669942129,
            -1.107363420557147,
            -1.5057868879586762,
            -0.9155354215507597,
            0.969298341202735,
            -0.22979682179657968,
            0.5944285262969228,
            -1.1698197645021016,
            -0.23375528252738104,
            -1.1728534076887625,
            0.7442182404783517,
            1.1550084001824297,
            -0.5826271986076612,
            0.776073300954091,
            -1.215476398297762
          ]
        ],
        [
          [
            -0.4158569070073461,
            0.6784110146025991,
            0.6405086256055554,
            -0.9202538809045901,
            -0.5636554904522625,
            0.23146062587557809,
            0.9536312406057401,
            -0.22825691059351721
          ],
          [
            -0.35163749649198656,
            0.6210895862081133,
            1.1009309318079397,
            -1.0042098615592874,
            -0.10354512646575523,
            0.7183198165111893,
            1.5497038881647913,
            -1.370665181536517
          ],
          [
            0.4221308488613861,
            -0.4727935567982414,
            0.3047797954045798,
            -1.41847865452021,
            -0.14455177228433647,
            -0.3816409447969542,
            0.8928835413136431,
            -0.3528604566063413
          ],
          [
            1.4437351353456906,
            -1.0984514915666572,
            -0.43715247111433464,
            0.3792806365556032,
            -0.5107756591259505,
            0.7579287590586924,
            -0.5675851264101185,
            0.9579137622097423
          ],
          [
            1.5993854440618056,
            -1.5238367316085908,
            0.444261509724262,
            -0.9882785670996505,
            -0.22144937525865854,
            0.44299398645816435,
            0.6891239760887372,
            -1.0918157412877398
          ],
          [
            0.9469929371175739,
            -0.12751359086903957,
            1.0020049380699725,
            -1.1604850988147304,
            -0.9696109722095931,
            0.6698638583081917,
            -0.3222120018419154,
            0.31841288195690837
          ],
          [
            0.3055942915447357,
            0.721292889686874,
            0.6888695959020971,
            0.2438125317055485,
            -0.9207514197756519,
            0.07406486464250958,
            1.0445870352809608,
            0.2381697898884529
          ],
          [
            1.0133288857331637,
            1.6,
            0.6833987237637484,
            1.3792517941561113,
            1.3801795232466034,
            -1.1868026968153012,
            -0.05427489850977257,
            -0.1735009873769765
          ]
        ],
        [
          [
            -0.3703871765317351,
            -1.440626180259507,
            0.08244887317288233,
            -0.8063852745572817,
            -0.5794655758173894,
            0.3540421312299622,
            1.3700521674718493,
            0.4989102436898908
          ],
          [
            1.1499246581334128,
            -1.0449323346074342,
            -0.31533052078417956,
            -1.4519509251327762,
            0.19711054838681188,
            0.5939642352410739,
            1.5445643559960929,
            -0.754785675746649
          ],
          [
            -1.3295806945630102,
            0.3238099476429668,
            1.0128041162112154,
            -0.8381498128346424,
            0.16008953434539888,
            -1.222465017662106,
            -0.29890909281803896,
            0.799817055799646
          ],
          [
            -0.3088748796266299,
            -1.0688054579443338,
            -0.7678056422882522,
            -0.17418675777083814,
            1.1189636793453956,
            -0.41947892449381424,
            0.555425546349572,
            0.09185145181045698
          ],
          [
            -0.4471822333403864,
            0.4734524909269301,
            -0.18341077897752495,
            1.5113456700623686,
            -0.11625316888710374,
            1.1554771298428679,
            0.2411750367043069,
            -0.43786046656796934
          ],
          [
            0.7192173397581381,
            0.5431324689118269,
            -0.9666773130140778,
            -0.921110325070801,
            -1.0954924962856174,
            -1.5789762425792773,
            -1.4665585945171247,
            1.5123082192332329
          ],
          [
            0.38027738992709237,
            0.34429732254396755,
            0.4983113635221214,
            0.34132180183053124,
            -0.10763808206332956,
            -0.3509421270211707,
            0.85360594087343,
            -0.4243660269926779
          ],
          [
            0.08147206405359189,
            -1.245459007123011,
            -0.07195413464577505,
            0.8836296147411645,
            0.3831029285673008,
            1.381940287626628,
            -0.07451998086088435,
            -1.2853866296568384
          ]
        ],
        [
          [
            -1.1604140987944618,
            0.3827503533247362,
            -1.4975177646334372,
            1.0683940201044555,
            0.0900204219394882,
            -0.6636010109388792,
            0.7282233401202358,
            0.44086910859029543
          ],
          [
            1.4359592921932673,
            -1.0605238851468828,
            1.2724724312173517,
            -1.3863915281973604,
            0.00346272799440539,
            0.46508162711613005,
            1.0704870320627915,
            0.1871287367472736
          ],
          [
            1.4882775362644398,
            1.0046284647950756,
            0.2689751721594362,
            0.19989627642886737,
            -0.28332906313022777,
            1.298716845734414,
            0.7292940195002887,
            -1.3490044334693194
          ],
          [
            -1.2040843572483213,
            0.22292623525199,
            0.18644772842928264,
            -1.6,
            0.19563118661411083,
            -0.9683256442148191,
            0.2278482432371249,
            0.18919335149492186
          ],
          [
            0.6521705027840994,
            -0.44153487668284924,
            -0.5691961339356506,
            -0.5966618150533916,
            -0.6902715821128141,
            -1.1397036884815384,
            0.44335314845245594,
            0.3579410200168474
          ],
          [
            0.3457258559942169,
            -0.6916323757434328,
            0.7964529305626469,
            0.7482058984608355,
            -0.19093525814901624,
            -0.9049213510124742,
            0.86779223115298,
            1.436467002593416
          ],
          [
            1.4573823063349898,
            1.6,
            0.28392714344973313,
            0.5533987523259386,
            0.5674171779956354,
            0.543521935238005,
            -1.1218094176992897,
            0.41108404183778996
          ],
          [
            -0.08542953462420108,
            -1.6,
            0.13358364579794335,
            0.8982580301831415,
            -0.3483966981457852,
            -0.8451789311114364,
            0.6562918720022687,
            -0.24255296074401467
          ]
        ]
      ],
      "biases": [
        [
          0.5689336753173354,
          -1.4054252281691315,
          -0.9065574149210545,
          0.39707210531913295,
          -1.0100204768539507,
          1.0443135057688522,
          -0.38585734909449665,
          -0.8908757575500998
        ],
        [
          -0.8756704437026777,
          0.33240451232427326,
          -1.3032763321230538,
          -0.9220442113367294,
          -0.781892058069916,
          -0.2240349423920977,
          1.0644915917754663,
          1.1457293629643168
        ],
        [
          0.45909173275659043,
          0.49345728643416764,
          -0.6496474663362544,
          1.123412738645406,
          1.0522537850957239,
          0.7996830644222359,
          0.263490095678352,
          -0.7857784506147462
        ],
        [
          1.6,
          -1.5981113643999165,
          -1.3882139513927128,
          -1.0619052107999605,
          -0.5789140613233015,
          0.38717342423357093,
          0.08085214833381482,
          1.2894659962492279
        ]
      ]
    }
  },
  "brain": {
    "weights": [
      [
        [
          -1.4372508802979314,
          -1.1194684894760916,
          0.9398502665590296,
          -0.5001476794615587,
          0.31663806852720655,
          -0.08386839210410366,
          -0.9752897829418001,
          -1.3209918176605915,
          0.1952413914611319,
          0.24017712317118678,
          0.5416212145761773,
          -1.4587375534795264,
          -0.12102244849523969,
          -1.2556460742166025,
          -0.6996624302050354,
          -1.1231521993409699
        ],
        [
          1.3313046243729,
          -0.2715885240222003,
          -0.8605512441228163,
          -1.1605055711470034,
          0.934370623462379,
          0.018618075726592076,
          -0.03604738087175474,
          0.8659720048002044,
          -0.7874344032162565,
          -1.4317455357077087,
          0.11548886951868217,
          -1.6,
          -0.019991554164046466,
          -0.2270203981650115,
          0.05569961607741525,
          0.00555903195181906
        ],
        [
          -1.3501070300338052,
          0.6940619178815903,
          0.24748586830402897,
          -0.38599079207579845,
          -0.5856292103627291,
          0.00831448023385814,
          -1.0910226999188746,
          0.6967531704782124,
          1.6,
          -0.5791281412711848,
          0.37517324205714625,
          1.334056598740336,
          -0.10193023915495536,
          -0.4728866298398995,
          0.9410944831338155,
          0.29652891309524415
        ],
        [
          -0.36124280809121867,
          0.12330365812774377,
          -0.488098259111168,
          -0.9094145202162403,
          0.6674443873712856,
          1.1164499075765282,
          -0.7465989212547522,
          0.7906550031575248,
          -0.9096714077427239,
          -0.23780641936893607,
          1.4167409136248925,
          -1.3209852658553842,
          0.23580455785802748,
          -1.3785040651668663,
          0.16935227348129755,
          0.013117159522412547
        ],
        [
          -0.6242906727188298,
          -0.8239138309606714,
          -1.0078409403251896,
          0.866681336427124,
          1.308324906924615,
          0.04885986489703281,
          0.47765594879881923,
          1.2304118499259027,
          -0.7834263533071102,
          -0.4279008653263314,
          -0.4889063985427269,
          1.2036581508222037,
          -0.14076955277799857,
          1.2834606808027702,
          0.9771536983988245,
          -0.04441790137018964
        ],
        [
          -1.1421019827718168,
          0.3799125504616857,
          0.5065332639219089,
          -1.4584480385665706,
          -0.8769258675136127,
          0.8403824451156783,
          -0.17696257224612094,
          -1.3045769560384515,
          -1.2044830817813152,
          -0.585930203760314,
          -1.5883297362885296,
          0.24762457593826293,
          0.45353293025016694,
          0.07747766858122668,
          1.2337120103100407,
          -0.7268033961525613
        ],
        [
          1.0863675987527666,
          -1.0494901156935232,
          0.13284097691784053,
          -1.5743762082313597,
          0.4269044914707284,
          -0.8907210770007068,
          0.5731031982442866,
          0.43868795399374083,
          -0.35337401247297173,
          0.24868349756924013,
          1.0390691593493544,
          0.24870008860049414,
          1.3781172546878968,
          0.9681445916276525,
          1.585136426828132,
          -0.4611975249156642
        ],
        [
          0.14764269714745035,
          0.7355965669942129,
          -1.107363420557147,
          -1.5057868879586762,
          -0.9155354215507597,
          0.969298341202735,
          -0.22979682179657968,
          0.5944285262969228,
          -1.1698197645021016,
          -0.23375528252738104,
          -1.1728534076887625,
          0.7442182404783517,
          1.1550084001824297,
          -0.5826271986076612,
          0.776073300954091,
          -1.215476398297762
        ]
      ],
      [
        [
          -0.4158569070073461,
          0.6784110146025991,
          0.6405086256055554,
          -0.9202538809045901,
          -0.5636554904522625,
          0.23146062587557809,
          0.9536312406057401,
          -0.22825691059351721
        ],
        [
          -0.35163749649198656,
          0.6210895862081133,
          1.1009309318079397,
          -1.0042098615592874,
          -0.10354512646575523,
          0.7183198165111893,
          1.5497038881647913,
          -1.370665181536517
        ],
        [
          0.4221308488613861,
          -0.4727935567982414,
          0.3047797954045798,
          -1.41847865452021,
          -0.14455177228433647,
          -0.3816409447969542,
          0.8928835413136431,
          -0.3528604566063413
        ],
        [
          1.4437351353456906,
          -1.0984514915666572,
          -0.43715247111433464,
          0.3792806365556032,
          -0.5107756591259505,
          0.7579287590586924,
          -0.5675851264101185,
          0.9579137622097423
        ],
        [
          1.5993854440618056,
          -1.5238367316085908,
          0.444261509724262,
          -0.9882785670996505,
          -0.22144937525865854,
          0.44299398645816435,
          0.6891239760887372,
          -1.0918157412877398
        ],
        [
          0.9469929371175739,
          -0.12751359086903957,
          1.0020049380699725,
          -1.1604850988147304,
          -0.9696109722095931,
          0.6698638583081917,
          -0.3222120018419154,
          0.31841288195690837
        ],
        [
          0.3055942915447357,
          0.721292889686874,
          0.6888695959020971,
          0.2438125317055485,
          -0.9207514197756519,
          0.07406486464250958,
          1.0445870352809608,
          0.2381697898884529
        ],
        [
          1.0133288857331637,
          1.6,
          0.6833987237637484,
          1.3792517941561113,
          1.3801795232466034,
          -1.1868026968153012,
          -0.05427489850977257,
          -0.1735009873769765
        ]
      ],
      [
        [
          -0.3703871765317351,
          -1.440626180259507,
          0.08244887317288233,
          -0.8063852745572817,
          -0.5794655758173894,
          0.3540421312299622,
          1.3700521674718493,
          0.4989102436898908
        ],
        [
          1.1499246581334128,
          -1.0449323346074342,
          -0.31533052078417956,
          -1.4519509251327762,
          0.19711054838681188,
          0.5939642352410739,
          1.5445643559960929,
          -0.754785675746649
        ],
        [
          -1.3295806945630102,
          0.3238099476429668,
          1.0128041162112154,
          -0.8381498128346424,
          0.16008953434539888,
          -1.222465017662106,
          -0.29890909281803896,
          0.799817055799646
        ],
        [
          -0.3088748796266299,
          -1.0688054579443338,
          -0.7678056422882522,
          -0.17418675777083814,
          1.1189636793453956,
          -0.41947892449381424,
          0.555425546349572,
          0.09185145181045698
        ],
        [
          -0.4471822333403864,
          0.4734524909269301,
          -0.18341077897752495,
          1.5113456700623686,
          -0.11625316888710374,
          1.1554771298428679,
          0.2411750367043069,
          -0.43786046656796934
        ],
        [
          0.7192173397581381,
          0.5431324689118269,
          -0.9666773130140778,
          -0.921110325070801,
          -1.0954924962856174,
          -1.5789762425792773,
          -1.4665585945171247,
          1.5123082192332329
        ],
        [
          0.38027738992709237,
          0.34429732254396755,
          0.4983113635221214,
          0.34132180183053124,
          -0.10763808206332956,
          -0.3509421270211707,
          0.85360594087343,
          -0.4243660269926779
        ],
        [
          0.08147206405359189,
          -1.245459007123011,
          -0.07195413464577505,
          0.8836296147411645,
          0.3831029285673008,
          1.381940287626628,
          -0.07451998086088435,
          -1.2853866296568384
        ]
      ],
      [
        [
          -1.1604140987944618,
          0.3827503533247362,
          -1.4975177646334372,
          1.0683940201044555,
          0.0900204219394882,
          -0.6636010109388792,
          0.7282233401202358,
          0.44086910859029543
        ],
        [
          1.4359592921932673,
          -1.0605238851468828,
          1.2724724312173517,
          -1.3863915281973604,
          0.00346272799440539,
          0.46508162711613005,
          1.0704870320627915,
          0.1871287367472736
        ],
        [
          1.4882775362644398,
          1.0046284647950756,
          0.2689751721594362,
          0.19989627642886737,
          -0.28332906313022777,
          1.298716845734414,
          0.7292940195002887,
          -1.3490044334693194
        ],
        [
          -1.2040843572483213,
          0.22292623525199,
          0.18644772842928264,
          -1.6,
          0.19563118661411083,
          -0.9683256442148191,
          0.2278482432371249,
          0.18919335149492186
        ],
        [
          0.6521705027840994,
          -0.44153487668284924,
          -0.5691961339356506,
          -0.5966618150533916,
          -0.6902715821128141,
          -1.1397036884815384,
          0.44335314845245594,
          0.3579410200168474
        ],
        [
          0.3457258559942169,
          -0.6916323757434328,
          0.7964529305626469,
          0.7482058984608355,
          -0.19093525814901624,
          -0.9049213510124742,
          0.86779223115298,
          1.436467002593416
        ],
        [
          1.4573823063349898,
          1.6,
          0.28392714344973313,
          0.5533987523259386,
          0.5674171779956354,
          0.543521935238005,
          -1.1218094176992897,
          0.41108404183778996
        ],
        [
          -0.08542953462420108,
          -1.6,
          0.13358364579794335,
          0.8982580301831415,
          -0.3483966981457852,
          -0.8451789311114364,
          0.6562918720022687,
          -0.24255296074401467
        ]
      ]
    ],
    "biases": [
      [
        0.5689336753173354,
        -1.4054252281691315,
        -0.9065574149210545,
        0.39707210531913295,
        -1.0100204768539507,
        1.0443135057688522,
        -0.38585734909449665,
        -0.8908757575500998
      ],
      [
        -0.8756704437026777,
        0.33240451232427326,
        -1.3032763321230538,
        -0.9220442113367294,
        -0.781892058069916,
        -0.2240349423920977,
        1.0644915917754663,
        1.1457293629643168
      ],
      [
        0.45909173275659043,
        0.49345728643416764,
        -0.6496474663362544,
        1.123412738645406,
        1.0522537850957239,
        0.7996830644222359,
        0.263490095678352,
        -0.7857784506147462
      ],
      [
        1.6,
        -1.5981113643999165,
        -1.3882139513927128,
        -1.0619052107999605,
        -0.5789140613233015,
        0.38717342423357093,
        0.08085214833381482,
        1.2894659962492279
      ]
    ]
  }
}
});

