window.BUNDLED_HONORED_WORM_PAYLOADS = window.BUNDLED_HONORED_WORM_PAYLOADS || [];
window.BUNDLED_HONORED_WORM_PAYLOADS.push({
  key: 'c-1400-g-77-age-14055f-20260330-160810.json',
  payload: {
  "kind": "neuro-worm-sim-brain-bank-specimen",
  "version": 1,
  "exportedAt": "2026-03-30T23:08:10.242Z",
  "metadata": {
    "displayName": "Longest-Lived C-1400",
    "origin": "sampled",
    "fileName": "c-1400-g-77-age-14055f-20260330-160810.json",
    "sourceCreatureId": 1400,
    "sampledTick": 390166,
    "ageFrames": 14055,
    "generation": 77,
    "hue": 3.6932681786723265,
    "colorGenes": {
      "hue": 3.6932681786723265,
      "saturation": 92,
      "lightness": 62,
      "segmentShadeDepth": 10,
      "highlightHueShift": 0,
      "highlightSaturation": 100,
      "highlightLightness": 82,
      "eggHueShift": 0,
      "eggSaturation": 48,
      "eggLightness": 84
    },
    "segmentGene": 4
  },
  "specimen": {
    "x": 1000.1500593658253,
    "y": 237.33949621599436,
    "heading": 3701.940682960626,
    "hue": 3.6932681786723265,
    "colorGenes": {
      "hue": 3.6932681786723265,
      "saturation": 92,
      "lightness": 62,
      "segmentShadeDepth": 10,
      "highlightHueShift": 0,
      "highlightSaturation": 100,
      "highlightLightness": 82,
      "eggHueShift": 0,
      "eggSaturation": 48,
      "eggLightness": 84
    },
    "energy": 86.97905730950423,
    "age": 14055,
    "generation": 77,
    "segmentGene": 4,
    "lifeStage": "adult",
    "brain": {
      "weights": [
        [
          [
            0.7361865538826198,
            0.06362360416135959,
            0.6210805238170444,
            -0.48829482123676843,
            0.6847727655498161,
            -1.5162740951177356,
            -0.28875075918062065,
            -0.6444766230215231,
            0.5320352543840707,
            -1.5837422942841604,
            -0.29643995972198867,
            -0.09795332393752343,
            0.29816635568754624,
            -0.9809099709208938,
            -0.6292759506032539,
            -0.786906818815229
          ],
          [
            -1.3260306793115189,
            -0.315527085306284,
            0.8989862836723748,
            1.3119659783371804,
            -0.15074798879195758,
            1.3345687949573655,
            -1.584136271671984,
            0.055103102553871464,
            -0.27217155552731814,
            0.0867586979681072,
            0.563627351901105,
            0.6077954548663866,
            -0.3306913445560283,
            0.22529544069630095,
            0.6206825038416997,
            -0.19948422399292737
          ],
          [
            -1.3252078570776822,
            -0.9689181466042995,
            1.1558581963617152,
            0.20554277684815783,
            1.4168759183430324,
            -0.8407298943459498,
            1.5058439043220375,
            0.2702053582736595,
            -0.5209547395879279,
            -1.3473552545439078,
            0.6880635472834987,
            -0.6850872901806181,
            -0.7162236015325607,
            -0.49113886785374855,
            0.6011371818398562,
            0.0009047318776234659
          ],
          [
            -1.6,
            -0.9472771188948337,
            -1.4767913815189502,
            0.4038607077062218,
            -0.9901421134901125,
            0.3899128847281482,
            -1.2744509026473272,
            -0.9302826712084075,
            1.1743505301258903,
            -0.5397947563660077,
            -1.2912319309683316,
            1.3316034339769112,
            -0.926993239092321,
            0.44878489462937965,
            0.34242983946308114,
            -0.1109171176521837
          ],
          [
            -1.111949117632268,
            0.25958399578914454,
            0.7179909244950018,
            0.7606253970609321,
            0.3266226336020695,
            1.421515322538274,
            0.7907225872196959,
            0.8626396227851837,
            -0.5803383828169087,
            -1.6,
            -0.2673955610268361,
            -1.6,
            0.66617479863461,
            -1.6,
            0.4725675692422363,
            -0.6630567591022396
          ],
          [
            -0.34388040631875383,
            0.3859723557771117,
            0.11777489511910996,
            -0.015989620858076425,
            -1.0651325844136648,
            -0.22286111135763448,
            -1.1272400033174912,
            0.6426630153260783,
            -0.050850326174197075,
            -0.6122304014342119,
            -0.23244013814989817,
            -1.2707302979832469,
            0.1569908508243897,
            0.1201125816791902,
            0.36082552469921153,
            0.7158354115171621
          ],
          [
            -0.27200547516167556,
            1.0871137666878554,
            0.378274072004418,
            -0.792567984081405,
            0.3666306200079896,
            -1.6,
            -1.3408806078642121,
            -1.6,
            -0.914526239017088,
            0.09602134286853098,
            -0.7999898336494429,
            0.7469882733758211,
            -1.5225426904609518,
            1.0110684665177567,
            -0.5310315228209042,
            0.949268933265797
          ],
          [
            -0.9362778322346984,
            1.3567568777702184,
            -1.4353218246598836,
            0.17848640241209973,
            -0.8616100132802551,
            0.6283118222074819,
            0.48769469448954855,
            0.5892666054274751,
            -1.0762941499428282,
            0.8297225510489237,
            0.7016046812726974,
            -0.630957611360941,
            0.47704107064303175,
            -0.532717147498156,
            -1.4414975065210478,
            -0.8867711281701081
          ]
        ],
        [
          [
            0.57516223524867,
            0.17916136568198981,
            -0.26544256172881275,
            -0.5365921606270287,
            -0.9388641788458991,
            0.5112714525797675,
            -1.2600416282470221,
            0.44199084843385794
          ],
          [
            -0.7263296990399255,
            -1.6,
            -0.6108132344801419,
            0.5462313119229064,
            1.3112969549150078,
            -0.4370744422907039,
            1.256046457891169,
            0.6142473162300318
          ],
          [
            -0.011788419365058228,
            0.6355485556574254,
            -0.7680110879902622,
            -0.9938029847312198,
            -0.6750182564076542,
            0.12654202392023917,
            0.5600850231781458,
            1.4870611509373357
          ],
          [
            -1.081915803587808,
            0.5667172797338483,
            0.36841959905411514,
            0.5589668035942323,
            -0.41900091416748253,
            -1.0660029897883656,
            -1.4393913854270102,
            -0.25870364217872555
          ],
          [
            -0.2984173052368326,
            -0.9608113756310037,
            0.3684880697096715,
            0.9039088168119832,
            0.40283719993873157,
            -0.5568641307291018,
            -0.0093112237746161,
            0.6247222942229766
          ],
          [
            1.5668466452534617,
            -0.21616787843103263,
            0.5608712381379061,
            1.05384249926137,
            1.2602346202192545,
            -0.037497333298816604,
            -0.8757928024106447,
            -0.3229400439138955
          ],
          [
            1.3243724497508007,
            -0.3531628969431778,
            1.0777061603673501,
            0.8187570110510634,
            0.9872127634329064,
            -0.6932634812929488,
            -0.30785458049919506,
            -0.5537749695661761
          ],
          [
            1.0156934410386231,
            0.16385011511376504,
            0.5475492143750982,
            0.5897458828310289,
            0.20367277291220606,
            -0.37258653673627407,
            -0.25448920203270087,
            -0.6556359800480649
          ]
        ],
        [
          [
            0.38855484962254483,
            -1.5214274352919337,
            0.7926509591602611,
            -0.1760550098153136,
            -1.0293840089696267,
            -0.14668482680707495,
            1.1465635266629306,
            0.13562000631218746
          ],
          [
            0.901395175613072,
            0.038137516031862495,
            -0.3675807237120985,
            -0.45499781520259164,
            0.2239052505674533,
            -0.06975860829177849,
            -0.17839601336950697,
            1.2663162771773462
          ],
          [
            1.5982673025893313,
            0.30598184239906345,
            1.5376283269250315,
            -0.9330215657837575,
            -1.5369651114037943,
            1.1005327740226123,
            0.273885919208051,
            -0.9691659675537035
          ],
          [
            -0.3405504702642884,
            1.339598245388513,
            0.9228659047281043,
            0.23479937387810512,
            0.13219376297049656,
            -1.4500336315540274,
            0.8637372388101525,
            0.9407265938981535
          ],
          [
            0.9086131642643367,
            0.7178249428269458,
            0.133334921455692,
            0.3024833531164376,
            1.2303953931072495,
            0.9828852715409327,
            -0.9665036653709925,
            0.5147880117165716
          ],
          [
            0.037731114531763504,
            -1.083755208106035,
            -0.9851025758619953,
            0.8077623021264955,
            -0.08414972997214518,
            -0.13318337148954812,
            0.6954298062984152,
            1.6
          ],
          [
            -0.3606459343046467,
            -0.5274078073318845,
            -0.46274506158921136,
            -0.8332698067155454,
            -0.3342548104707161,
            0.5464096566284924,
            0.045023097885643626,
            -1.5409725176472615
          ],
          [
            1.2040357511527993,
            0.9502164225015983,
            0.3257776308167198,
            -0.30397380849771494,
            0.060826962756006575,
            0.5245976955179696,
            0.6778247000294547,
            0.4530876990586511
          ]
        ],
        [
          [
            -0.36455642977234715,
            -1.0735826683826417,
            0.39486620403050665,
            0.6170009313611444,
            0.4807739259180478,
            -1.1696177339854827,
            -1.327505427981624,
            1.1884151142542985
          ],
          [
            1.4450369148209135,
            -0.03456835380513226,
            -0.9334151025072094,
            -1.1470863762504544,
            -1.124605967668913,
            -1.6,
            1.189477496123293,
            0.42267544670810897
          ],
          [
            -0.07466017601258698,
            -0.5450149981161216,
            0.23616938371073073,
            0.37492861421203494,
            0.6000484674795993,
            0.06336649405713429,
            1.0336883702801205,
            0.38816336651378036
          ],
          [
            0.7982569719345067,
            0.13136786422202068,
            0.1879054679781313,
            -0.9729912141175003,
            -0.1099367373469364,
            1.4361402399896623,
            -0.8132098479338887,
            1.1441997564037933
          ],
          [
            1.2668419082213898,
            0.026761409237558098,
            -0.5818041284050339,
            1.054359330352635,
            0.39493023713255226,
            -0.9130322499712109,
            0.07214415517094352,
            0.38495817126044685
          ],
          [
            0.12872235205072882,
            -0.0972872861581581,
            -0.3124695891846537,
            1.045857259364588,
            0.23389647938056302,
            -1.0690590988551738,
            0.21754379352780068,
            0.3695300468386302
          ],
          [
            0.6124017368369424,
            0.6826696177948706,
            0.6392421003338454,
            -0.29949267720524547,
            0.27638121933810966,
            0.26456198078591214,
            -0.1699710310734578,
            -0.37955028223173765
          ],
          [
            0.6360508234607508,
            -0.15478106321626933,
            -0.5182630908343486,
            0.02318375894844324,
            0.13120186848313586,
            -0.67548144239272,
            -0.023756612003264677,
            0.7250058115015586
          ]
        ]
      ],
      "biases": [
        [
          0.6924367382843395,
          -1.155101178318695,
          0.31826552407955,
          1.4342691787549997,
          -1.385372337437274,
          0.024464771986674155,
          -0.05519930229449424,
          0.8116114647802339
        ],
        [
          -1.0478872676836084,
          0.3837648514254284,
          -0.7170185942505745,
          0.9765481015553584,
          0.5290014312649901,
          0.09783227164159078,
          -0.523873827849762,
          0.4727428483436853
        ],
        [
          -0.11656086308825453,
          0.9772586629037621,
          0.5423664918298938,
          -1.1583814175400882,
          0.13278227628759887,
          0.7122697113467175,
          -0.14392877558503012,
          0.9196834139876544
        ],
        [
          0.14341908277216975,
          1.3457562496656164,
          0.06909612234369467,
          -0.03870841124406779,
          -1.4226347632790688,
          -0.6238086752244761,
          -1.5652286476188921,
          -1.1602103594014408
        ]
      ]
    }
  },
  "brain": {
    "weights": [
      [
        [
          0.7361865538826198,
          0.06362360416135959,
          0.6210805238170444,
          -0.48829482123676843,
          0.6847727655498161,
          -1.5162740951177356,
          -0.28875075918062065,
          -0.6444766230215231,
          0.5320352543840707,
          -1.5837422942841604,
          -0.29643995972198867,
          -0.09795332393752343,
          0.29816635568754624,
          -0.9809099709208938,
          -0.6292759506032539,
          -0.786906818815229
        ],
        [
          -1.3260306793115189,
          -0.315527085306284,
          0.8989862836723748,
          1.3119659783371804,
          -0.15074798879195758,
          1.3345687949573655,
          -1.584136271671984,
          0.055103102553871464,
          -0.27217155552731814,
          0.0867586979681072,
          0.563627351901105,
          0.6077954548663866,
          -0.3306913445560283,
          0.22529544069630095,
          0.6206825038416997,
          -0.19948422399292737
        ],
        [
          -1.3252078570776822,
          -0.9689181466042995,
          1.1558581963617152,
          0.20554277684815783,
          1.4168759183430324,
          -0.8407298943459498,
          1.5058439043220375,
          0.2702053582736595,
          -0.5209547395879279,
          -1.3473552545439078,
          0.6880635472834987,
          -0.6850872901806181,
          -0.7162236015325607,
          -0.49113886785374855,
          0.6011371818398562,
          0.0009047318776234659
        ],
        [
          -1.6,
          -0.9472771188948337,
          -1.4767913815189502,
          0.4038607077062218,
          -0.9901421134901125,
          0.3899128847281482,
          -1.2744509026473272,
          -0.9302826712084075,
          1.1743505301258903,
          -0.5397947563660077,
          -1.2912319309683316,
          1.3316034339769112,
          -0.926993239092321,
          0.44878489462937965,
          0.34242983946308114,
          -0.1109171176521837
        ],
        [
          -1.111949117632268,
          0.25958399578914454,
          0.7179909244950018,
          0.7606253970609321,
          0.3266226336020695,
          1.421515322538274,
          0.7907225872196959,
          0.8626396227851837,
          -0.5803383828169087,
          -1.6,
          -0.2673955610268361,
          -1.6,
          0.66617479863461,
          -1.6,
          0.4725675692422363,
          -0.6630567591022396
        ],
        [
          -0.34388040631875383,
          0.3859723557771117,
          0.11777489511910996,
          -0.015989620858076425,
          -1.0651325844136648,
          -0.22286111135763448,
          -1.1272400033174912,
          0.6426630153260783,
          -0.050850326174197075,
          -0.6122304014342119,
          -0.23244013814989817,
          -1.2707302979832469,
          0.1569908508243897,
          0.1201125816791902,
          0.36082552469921153,
          0.7158354115171621
        ],
        [
          -0.27200547516167556,
          1.0871137666878554,
          0.378274072004418,
          -0.792567984081405,
          0.3666306200079896,
          -1.6,
          -1.3408806078642121,
          -1.6,
          -0.914526239017088,
          0.09602134286853098,
          -0.7999898336494429,
          0.7469882733758211,
          -1.5225426904609518,
          1.0110684665177567,
          -0.5310315228209042,
          0.949268933265797
        ],
        [
          -0.9362778322346984,
          1.3567568777702184,
          -1.4353218246598836,
          0.17848640241209973,
          -0.8616100132802551,
          0.6283118222074819,
          0.48769469448954855,
          0.5892666054274751,
          -1.0762941499428282,
          0.8297225510489237,
          0.7016046812726974,
          -0.630957611360941,
          0.47704107064303175,
          -0.532717147498156,
          -1.4414975065210478,
          -0.8867711281701081
        ]
      ],
      [
        [
          0.57516223524867,
          0.17916136568198981,
          -0.26544256172881275,
          -0.5365921606270287,
          -0.9388641788458991,
          0.5112714525797675,
          -1.2600416282470221,
          0.44199084843385794
        ],
        [
          -0.7263296990399255,
          -1.6,
          -0.6108132344801419,
          0.5462313119229064,
          1.3112969549150078,
          -0.4370744422907039,
          1.256046457891169,
          0.6142473162300318
        ],
        [
          -0.011788419365058228,
          0.6355485556574254,
          -0.7680110879902622,
          -0.9938029847312198,
          -0.6750182564076542,
          0.12654202392023917,
          0.5600850231781458,
          1.4870611509373357
        ],
        [
          -1.081915803587808,
          0.5667172797338483,
          0.36841959905411514,
          0.5589668035942323,
          -0.41900091416748253,
          -1.0660029897883656,
          -1.4393913854270102,
          -0.25870364217872555
        ],
        [
          -0.2984173052368326,
          -0.9608113756310037,
          0.3684880697096715,
          0.9039088168119832,
          0.40283719993873157,
          -0.5568641307291018,
          -0.0093112237746161,
          0.6247222942229766
        ],
        [
          1.5668466452534617,
          -0.21616787843103263,
          0.5608712381379061,
          1.05384249926137,
          1.2602346202192545,
          -0.037497333298816604,
          -0.8757928024106447,
          -0.3229400439138955
        ],
        [
          1.3243724497508007,
          -0.3531628969431778,
          1.0777061603673501,
          0.8187570110510634,
          0.9872127634329064,
          -0.6932634812929488,
          -0.30785458049919506,
          -0.5537749695661761
        ],
        [
          1.0156934410386231,
          0.16385011511376504,
          0.5475492143750982,
          0.5897458828310289,
          0.20367277291220606,
          -0.37258653673627407,
          -0.25448920203270087,
          -0.6556359800480649
        ]
      ],
      [
        [
          0.38855484962254483,
          -1.5214274352919337,
          0.7926509591602611,
          -0.1760550098153136,
          -1.0293840089696267,
          -0.14668482680707495,
          1.1465635266629306,
          0.13562000631218746
        ],
        [
          0.901395175613072,
          0.038137516031862495,
          -0.3675807237120985,
          -0.45499781520259164,
          0.2239052505674533,
          -0.06975860829177849,
          -0.17839601336950697,
          1.2663162771773462
        ],
        [
          1.5982673025893313,
          0.30598184239906345,
          1.5376283269250315,
          -0.9330215657837575,
          -1.5369651114037943,
          1.1005327740226123,
          0.273885919208051,
          -0.9691659675537035
        ],
        [
          -0.3405504702642884,
          1.339598245388513,
          0.9228659047281043,
          0.23479937387810512,
          0.13219376297049656,
          -1.4500336315540274,
          0.8637372388101525,
          0.9407265938981535
        ],
        [
          0.9086131642643367,
          0.7178249428269458,
          0.133334921455692,
          0.3024833531164376,
          1.2303953931072495,
          0.9828852715409327,
          -0.9665036653709925,
          0.5147880117165716
        ],
        [
          0.037731114531763504,
          -1.083755208106035,
          -0.9851025758619953,
          0.8077623021264955,
          -0.08414972997214518,
          -0.13318337148954812,
          0.6954298062984152,
          1.6
        ],
        [
          -0.3606459343046467,
          -0.5274078073318845,
          -0.46274506158921136,
          -0.8332698067155454,
          -0.3342548104707161,
          0.5464096566284924,
          0.045023097885643626,
          -1.5409725176472615
        ],
        [
          1.2040357511527993,
          0.9502164225015983,
          0.3257776308167198,
          -0.30397380849771494,
          0.060826962756006575,
          0.5245976955179696,
          0.6778247000294547,
          0.4530876990586511
        ]
      ],
      [
        [
          -0.36455642977234715,
          -1.0735826683826417,
          0.39486620403050665,
          0.6170009313611444,
          0.4807739259180478,
          -1.1696177339854827,
          -1.327505427981624,
          1.1884151142542985
        ],
        [
          1.4450369148209135,
          -0.03456835380513226,
          -0.9334151025072094,
          -1.1470863762504544,
          -1.124605967668913,
          -1.6,
          1.189477496123293,
          0.42267544670810897
        ],
        [
          -0.07466017601258698,
          -0.5450149981161216,
          0.23616938371073073,
          0.37492861421203494,
          0.6000484674795993,
          0.06336649405713429,
          1.0336883702801205,
          0.38816336651378036
        ],
        [
          0.7982569719345067,
          0.13136786422202068,
          0.1879054679781313,
          -0.9729912141175003,
          -0.1099367373469364,
          1.4361402399896623,
          -0.8132098479338887,
          1.1441997564037933
        ],
        [
          1.2668419082213898,
          0.026761409237558098,
          -0.5818041284050339,
          1.054359330352635,
          0.39493023713255226,
          -0.9130322499712109,
          0.07214415517094352,
          0.38495817126044685
        ],
        [
          0.12872235205072882,
          -0.0972872861581581,
          -0.3124695891846537,
          1.045857259364588,
          0.23389647938056302,
          -1.0690590988551738,
          0.21754379352780068,
          0.3695300468386302
        ],
        [
          0.6124017368369424,
          0.6826696177948706,
          0.6392421003338454,
          -0.29949267720524547,
          0.27638121933810966,
          0.26456198078591214,
          -0.1699710310734578,
          -0.37955028223173765
        ],
        [
          0.6360508234607508,
          -0.15478106321626933,
          -0.5182630908343486,
          0.02318375894844324,
          0.13120186848313586,
          -0.67548144239272,
          -0.023756612003264677,
          0.7250058115015586
        ]
      ]
    ],
    "biases": [
      [
        0.6924367382843395,
        -1.155101178318695,
        0.31826552407955,
        1.4342691787549997,
        -1.385372337437274,
        0.024464771986674155,
        -0.05519930229449424,
        0.8116114647802339
      ],
      [
        -1.0478872676836084,
        0.3837648514254284,
        -0.7170185942505745,
        0.9765481015553584,
        0.5290014312649901,
        0.09783227164159078,
        -0.523873827849762,
        0.4727428483436853
      ],
      [
        -0.11656086308825453,
        0.9772586629037621,
        0.5423664918298938,
        -1.1583814175400882,
        0.13278227628759887,
        0.7122697113467175,
        -0.14392877558503012,
        0.9196834139876544
      ],
      [
        0.14341908277216975,
        1.3457562496656164,
        0.06909612234369467,
        -0.03870841124406779,
        -1.4226347632790688,
        -0.6238086752244761,
        -1.5652286476188921,
        -1.1602103594014408
      ]
    ]
  }
}
});

