window.BUNDLED_TROPHY_WORM_PAYLOAD = {
  "kind": "neuro-worm-sim-brain-bank-specimen",
  "version": 1,
  "exportedAt": "2026-03-30T08:51:53.995Z",
  "metadata": {
    "displayName": "Longest-Lived C-4555",
    "origin": "sampled",
    "fileName": "c-4555-g-188-age-07311f-20260330-015153.json",
    "sourceCreatureId": 4555,
    "sampledTick": 897045,
    "ageFrames": 7311,
    "generation": 188,
    "hue": 274.5689383531285,
    "segmentGene": 4
  },
  "specimen": {
    "x": 1149.4896981179957,
    "y": 234.14679895757823,
    "heading": -6950.848533349895,
    "hue": 274.5689383531285,
    "energy": 75.28407896441284,
    "age": 7311,
    "generation": 188,
    "segmentGene": 4,
    "lifeStage": "adult",
    "brain": {
      "weights": [
        [
          [
            0.31312851793601654,
            -1.2324603638515095,
            0.2699519304688662,
            0.7262835984795567,
            1.3026396199019268,
            0.7581780644915335,
            1.3054555068711506,
            0.9101382915940982,
            -1.1068231221724574,
            -0.5379000628407178,
            -1.1126944546215394,
            0.5699839802555067,
            0.585590284621293,
            -1.004994442028834,
            -0.11086702240712804,
            1.3140073695072345
          ],
          [
            -1.6,
            0.3539777357722926,
            0.3134886800547658,
            -0.3037917223045515,
            -1.2956044760129684,
            -0.16189365267541894,
            0.3522465635033602,
            -1.1864283405485805,
            1.5274909509303964,
            -0.030359034777876742,
            -0.46389097652298356,
            1.2226030416175817,
            0.6601192115083594,
            0.6507730975589997,
            0.2780936551422809,
            0.47855759164169015
          ],
          [
            1.341770022652383,
            0.07463866635957217,
            -1.174079833160076,
            1.2654939025843526,
            1.4425279524470744,
            0.8402194662525342,
            -1.498016457552818,
            -0.9625512580906769,
            -0.5208843144144318,
            0.4224903912103364,
            -0.6443892483752204,
            1.432499409497492,
            0.03904386965405804,
            -1.2373480408616155,
            -0.5786664882055377,
            1.1342485639140092
          ],
          [
            0.5062140433673813,
            -0.18382783776227543,
            0.930755624071925,
            -0.7202179968258416,
            -0.5589742732359406,
            -0.5287533709999503,
            0.7886579408648248,
            1.309394515525092,
            1.024935530567145,
            0.572538579642127,
            0.4996533743839554,
            -1.131610412081206,
            -1.2704593683817933,
            0.7992892578412056,
            -1.4671724724224364,
            0.8855914196041872
          ],
          [
            0.12403076771063926,
            1.3088538763889803,
            -1.1205940660129854,
            -0.689399066880068,
            -0.1104654043385831,
            1.1270735112148826,
            0.06807554339001864,
            -0.24834177123337947,
            0.4753583341759313,
            1.0221871783691159,
            0.505561646755458,
            0.08135870207888948,
            -0.7021636221291937,
            1.1472124311605152,
            1.4227913949929896,
            0.02794045067061013
          ],
          [
            0.575615582907663,
            -0.13823269695349943,
            -0.06162718432044045,
            0.1978395811784983,
            -1.2846922869416815,
            0.9091191572475151,
            -0.9590214848013279,
            0.8170905809113193,
            0.19409050924689067,
            -0.08755554554003664,
            0.21467508891550985,
            1.1809889230426296,
            0.02448523731432506,
            -0.050865389111256015,
            0.6213621533759828,
            -0.07001470381466826
          ],
          [
            0.4376556453145417,
            0.06945033348176285,
            -0.4407476727879837,
            1.4981187621677161,
            0.1951199560102116,
            -0.24660011981464874,
            -0.20715979198902817,
            -1.3565268317956847,
            -0.14595083433251466,
            0.33669145849639254,
            -0.8123685094429383,
            1.2539729638823647,
            -0.006142545624517215,
            1.1949018380325893,
            -0.35408645511200115,
            0.19897817996432585
          ],
          [
            0.23559068700492958,
            -0.8075572450014226,
            -1.5537929987831707,
            -0.8501044454041196,
            -1.6,
            0.9896708094230844,
            0.09843007498910256,
            -1.054029316849985,
            -0.6250117618442643,
            -0.7671001632281571,
            -0.4903614114909722,
            1.1795923862859523,
            1.234644219559634,
            -1.043050442551474,
            0.31051830778977163,
            0.6739499834109872
          ]
        ],
        [
          [
            -0.5495467805375188,
            0.12934225828426837,
            0.1437898098115845,
            -0.21704496204385415,
            0.5846474005105089,
            -1.0150759020323588,
            1.150046181197361,
            0.5360467179357942
          ],
          [
            -0.12509550612185671,
            0.2637462659725164,
            -0.9902875658252516,
            -0.17244434603877049,
            -1.404965437626495,
            -0.6316648431760761,
            -0.23748627611358814,
            1.3940404993562439
          ],
          [
            -1.286533574054984,
            0.34807464951311384,
            1.0751568514419882,
            1.484260723075753,
            -0.6729418657414808,
            -0.6536166018871186,
            -0.8479249367183,
            -0.010578878108424145
          ],
          [
            -1.0170043300481646,
            0.24249265979373233,
            1.1802550680791843,
            0.7741873441247129,
            0.26150926968747407,
            -0.6422248678842283,
            0.7498636732721862,
            -1.0953296884712538
          ],
          [
            0.24390347036281088,
            -1.110860044183347,
            -0.9335288463738963,
            0.9295991079303461,
            1.297269360825963,
            -0.2568804695950893,
            -0.44254123860708144,
            -0.34020060288004017
          ],
          [
            -0.8616360065678119,
            -1.2158843439349916,
            -0.8403390310506496,
            1.0876272239026732,
            0.09536592202905675,
            1.6,
            -0.7584844582194505,
            0.12803659032814554
          ],
          [
            0.39349225493229456,
            1.6,
            0.39922766667501286,
            1.1940774628127477,
            0.17587356443822968,
            0.05315667500037585,
            1.0939112595653395,
            -1.334147207049553
          ],
          [
            -0.16855825772096372,
            0.7774326010348702,
            -1.6,
            0.3296512817942666,
            -0.15566524106026675,
            -1.3672595701571697,
            -0.23933979835658736,
            -0.9082981493268169
          ]
        ],
        [
          [
            -0.6571331968683796,
            -1.0565206579417272,
            1.3262956606726415,
            1.1963407580205656,
            -0.1589489423880273,
            -1.3456378662321185,
            0.46134312525587906,
            0.22005134772322776
          ],
          [
            1.3550538774454732,
            1.1630238113217644,
            0.9608674462527756,
            0.5425436099906895,
            0.8638594685028108,
            -0.4217174750324804,
            -1.593574403442325,
            0.4606100901788411
          ],
          [
            0.8943877633612614,
            0.8921245929338639,
            0.23234222870436838,
            1.050046747298375,
            -0.36996836670105393,
            1.0365005451259672,
            -0.800894355496349,
            0.6412438822646115
          ],
          [
            0.5362492113992182,
            0.8497874088154291,
            0.40127929160339526,
            0.030089021869623478,
            -0.2434318090967303,
            -1.3921052610547684,
            0.4939368145290633,
            0.2203931392514578
          ],
          [
            -0.22093912035874963,
            0.7313274546267197,
            -1.264730516201881,
            -1.6,
            -0.40279611369133506,
            0.29399666999989377,
            -0.8455674206334151,
            0.04511756816708509
          ],
          [
            -1.3499567676033177,
            -1.0457074190642899,
            0.5631495066657628,
            -0.5727816153831327,
            -0.4540147877927261,
            -1.0598767465360281,
            0.43482640127796046,
            -0.9977929879454396
          ],
          [
            -0.794581786087823,
            0.14903607307063343,
            -0.10918863021902642,
            -1.4822189714777418,
            -0.257312194450073,
            0.09082978472206363,
            -0.521670020393404,
            1.3150526482312728
          ],
          [
            -0.12211778914949944,
            0.7618793020660228,
            0.11549741016727622,
            -0.4383189281377039,
            -0.2086139542366861,
            -0.5598231045411637,
            -0.0443244312602481,
            -0.3619860681200903
          ]
        ],
        [
          [
            0.5882437937962224,
            1.49756775566163,
            0.5575931409621269,
            0.4331661812899633,
            -0.6692644221413001,
            -0.3569824226469981,
            0.40092801117717963,
            -0.8522909948337999
          ],
          [
            0.5466035859544431,
            -0.7988297734543848,
            -1.0351011665768317,
            0.5483758260862417,
            1.3211636269071734,
            -0.6567714519120378,
            0.48478269873854624,
            -0.5877039993662218
          ],
          [
            -1.3972191495946538,
            -1.0663772873550654,
            0.8244013671360053,
            -0.9102243546098879,
            1.5867331035207715,
            -1.0235366106741777,
            0.49494984245488927,
            -0.3354959524915555
          ],
          [
            -1.3439482608306064,
            1.6,
            0.31772544400351677,
            1.6,
            0.360563375867314,
            -0.44151956958731414,
            0.9100677793541925,
            -1.1794282454674565
          ],
          [
            0.5853332404548282,
            0.9990384747078113,
            -0.673811627353038,
            0.8116475648443411,
            0.9966145199991441,
            -1.5811335241260804,
            -0.12585027202551152,
            -0.2748455278054546
          ],
          [
            0.2916867161598309,
            -1.2361856278296102,
            -0.23897104222989568,
            1.308136261980867,
            0.8060849710090168,
            0.20782022756867496,
            1.517086545702109,
            0.5911725606888976
          ],
          [
            -0.19140391588581243,
            -1.2898137928357332,
            -1.4797257906745989,
            -0.2889680129808097,
            0.11500473894886487,
            0.8893144099577474,
            -0.5398396294452483,
            -1.2304079086283757
          ],
          [
            -0.9357125143290335,
            -0.39805776818728644,
            -0.3148750785342298,
            -1.0530890355963383,
            1.1252847958835506,
            -1.4906643183547001,
            -0.015932754672893457,
            0.23004924745543354
          ]
        ]
      ],
      "biases": [
        [
          0.13976988776258664,
          0.9222439778193944,
          0.34822069201305467,
          0.21570829152880178,
          0.5532503574776807,
          -0.6586789681869061,
          -1.0223853722535727,
          -1.6
        ],
        [
          -0.3640794340361241,
          1.087454205399099,
          0.8004085549140674,
          1.2189899881176818,
          1.4139769195632803,
          0.3325645195567576,
          -1.1617829092648735,
          -0.1588922268941461
        ],
        [
          -0.31508656958658154,
          -0.7535593893110759,
          0.49169842616784865,
          -0.47153574407330684,
          0.29694970417240446,
          0.31026829381202026,
          -0.5780402251881458,
          0.7531780236891299
        ],
        [
          -0.4376664412522574,
          -0.4533071058963702,
          1.6,
          -1.4524777464707506,
          -0.8417318206199005,
          -0.9570752796381543,
          0.26676795098578,
          0.8416346405386517
        ]
      ]
    }
  },
  "brain": {
    "weights": [
      [
        [
          0.31312851793601654,
          -1.2324603638515095,
          0.2699519304688662,
          0.7262835984795567,
          1.3026396199019268,
          0.7581780644915335,
          1.3054555068711506,
          0.9101382915940982,
          -1.1068231221724574,
          -0.5379000628407178,
          -1.1126944546215394,
          0.5699839802555067,
          0.585590284621293,
          -1.004994442028834,
          -0.11086702240712804,
          1.3140073695072345
        ],
        [
          -1.6,
          0.3539777357722926,
          0.3134886800547658,
          -0.3037917223045515,
          -1.2956044760129684,
          -0.16189365267541894,
          0.3522465635033602,
          -1.1864283405485805,
          1.5274909509303964,
          -0.030359034777876742,
          -0.46389097652298356,
          1.2226030416175817,
          0.6601192115083594,
          0.6507730975589997,
          0.2780936551422809,
          0.47855759164169015
        ],
        [
          1.341770022652383,
          0.07463866635957217,
          -1.174079833160076,
          1.2654939025843526,
          1.4425279524470744,
          0.8402194662525342,
          -1.498016457552818,
          -0.9625512580906769,
          -0.5208843144144318,
          0.4224903912103364,
          -0.6443892483752204,
          1.432499409497492,
          0.03904386965405804,
          -1.2373480408616155,
          -0.5786664882055377,
          1.1342485639140092
        ],
        [
          0.5062140433673813,
          -0.18382783776227543,
          0.930755624071925,
          -0.7202179968258416,
          -0.5589742732359406,
          -0.5287533709999503,
          0.7886579408648248,
          1.309394515525092,
          1.024935530567145,
          0.572538579642127,
          0.4996533743839554,
          -1.131610412081206,
          -1.2704593683817933,
          0.7992892578412056,
          -1.4671724724224364,
          0.8855914196041872
        ],
        [
          0.12403076771063926,
          1.3088538763889803,
          -1.1205940660129854,
          -0.689399066880068,
          -0.1104654043385831,
          1.1270735112148826,
          0.06807554339001864,
          -0.24834177123337947,
          0.4753583341759313,
          1.0221871783691159,
          0.505561646755458,
          0.08135870207888948,
          -0.7021636221291937,
          1.1472124311605152,
          1.4227913949929896,
          0.02794045067061013
        ],
        [
          0.575615582907663,
          -0.13823269695349943,
          -0.06162718432044045,
          0.1978395811784983,
          -1.2846922869416815,
          0.9091191572475151,
          -0.9590214848013279,
          0.8170905809113193,
          0.19409050924689067,
          -0.08755554554003664,
          0.21467508891550985,
          1.1809889230426296,
          0.02448523731432506,
          -0.050865389111256015,
          0.6213621533759828,
          -0.07001470381466826
        ],
        [
          0.4376556453145417,
          0.06945033348176285,
          -0.4407476727879837,
          1.4981187621677161,
          0.1951199560102116,
          -0.24660011981464874,
          -0.20715979198902817,
          -1.3565268317956847,
          -0.14595083433251466,
          0.33669145849639254,
          -0.8123685094429383,
          1.2539729638823647,
          -0.006142545624517215,
          1.1949018380325893,
          -0.35408645511200115,
          0.19897817996432585
        ],
        [
          0.23559068700492958,
          -0.8075572450014226,
          -1.5537929987831707,
          -0.8501044454041196,
          -1.6,
          0.9896708094230844,
          0.09843007498910256,
          -1.054029316849985,
          -0.6250117618442643,
          -0.7671001632281571,
          -0.4903614114909722,
          1.1795923862859523,
          1.234644219559634,
          -1.043050442551474,
          0.31051830778977163,
          0.6739499834109872
        ]
      ],
      [
        [
          -0.5495467805375188,
          0.12934225828426837,
          0.1437898098115845,
          -0.21704496204385415,
          0.5846474005105089,
          -1.0150759020323588,
          1.150046181197361,
          0.5360467179357942
        ],
        [
          -0.12509550612185671,
          0.2637462659725164,
          -0.9902875658252516,
          -0.17244434603877049,
          -1.404965437626495,
          -0.6316648431760761,
          -0.23748627611358814,
          1.3940404993562439
        ],
        [
          -1.286533574054984,
          0.34807464951311384,
          1.0751568514419882,
          1.484260723075753,
          -0.6729418657414808,
          -0.6536166018871186,
          -0.8479249367183,
          -0.010578878108424145
        ],
        [
          -1.0170043300481646,
          0.24249265979373233,
          1.1802550680791843,
          0.7741873441247129,
          0.26150926968747407,
          -0.6422248678842283,
          0.7498636732721862,
          -1.0953296884712538
        ],
        [
          0.24390347036281088,
          -1.110860044183347,
          -0.9335288463738963,
          0.9295991079303461,
          1.297269360825963,
          -0.2568804695950893,
          -0.44254123860708144,
          -0.34020060288004017
        ],
        [
          -0.8616360065678119,
          -1.2158843439349916,
          -0.8403390310506496,
          1.0876272239026732,
          0.09536592202905675,
          1.6,
          -0.7584844582194505,
          0.12803659032814554
        ],
        [
          0.39349225493229456,
          1.6,
          0.39922766667501286,
          1.1940774628127477,
          0.17587356443822968,
          0.05315667500037585,
          1.0939112595653395,
          -1.334147207049553
        ],
        [
          -0.16855825772096372,
          0.7774326010348702,
          -1.6,
          0.3296512817942666,
          -0.15566524106026675,
          -1.3672595701571697,
          -0.23933979835658736,
          -0.9082981493268169
        ]
      ],
      [
        [
          -0.6571331968683796,
          -1.0565206579417272,
          1.3262956606726415,
          1.1963407580205656,
          -0.1589489423880273,
          -1.3456378662321185,
          0.46134312525587906,
          0.22005134772322776
        ],
        [
          1.3550538774454732,
          1.1630238113217644,
          0.9608674462527756,
          0.5425436099906895,
          0.8638594685028108,
          -0.4217174750324804,
          -1.593574403442325,
          0.4606100901788411
        ],
        [
          0.8943877633612614,
          0.8921245929338639,
          0.23234222870436838,
          1.050046747298375,
          -0.36996836670105393,
          1.0365005451259672,
          -0.800894355496349,
          0.6412438822646115
        ],
        [
          0.5362492113992182,
          0.8497874088154291,
          0.40127929160339526,
          0.030089021869623478,
          -0.2434318090967303,
          -1.3921052610547684,
          0.4939368145290633,
          0.2203931392514578
        ],
        [
          -0.22093912035874963,
          0.7313274546267197,
          -1.264730516201881,
          -1.6,
          -0.40279611369133506,
          0.29399666999989377,
          -0.8455674206334151,
          0.04511756816708509
        ],
        [
          -1.3499567676033177,
          -1.0457074190642899,
          0.5631495066657628,
          -0.5727816153831327,
          -0.4540147877927261,
          -1.0598767465360281,
          0.43482640127796046,
          -0.9977929879454396
        ],
        [
          -0.794581786087823,
          0.14903607307063343,
          -0.10918863021902642,
          -1.4822189714777418,
          -0.257312194450073,
          0.09082978472206363,
          -0.521670020393404,
          1.3150526482312728
        ],
        [
          -0.12211778914949944,
          0.7618793020660228,
          0.11549741016727622,
          -0.4383189281377039,
          -0.2086139542366861,
          -0.5598231045411637,
          -0.0443244312602481,
          -0.3619860681200903
        ]
      ],
      [
        [
          0.5882437937962224,
          1.49756775566163,
          0.5575931409621269,
          0.4331661812899633,
          -0.6692644221413001,
          -0.3569824226469981,
          0.40092801117717963,
          -0.8522909948337999
        ],
        [
          0.5466035859544431,
          -0.7988297734543848,
          -1.0351011665768317,
          0.5483758260862417,
          1.3211636269071734,
          -0.6567714519120378,
          0.48478269873854624,
          -0.5877039993662218
        ],
        [
          -1.3972191495946538,
          -1.0663772873550654,
          0.8244013671360053,
          -0.9102243546098879,
          1.5867331035207715,
          -1.0235366106741777,
          0.49494984245488927,
          -0.3354959524915555
        ],
        [
          -1.3439482608306064,
          1.6,
          0.31772544400351677,
          1.6,
          0.360563375867314,
          -0.44151956958731414,
          0.9100677793541925,
          -1.1794282454674565
        ],
        [
          0.5853332404548282,
          0.9990384747078113,
          -0.673811627353038,
          0.8116475648443411,
          0.9966145199991441,
          -1.5811335241260804,
          -0.12585027202551152,
          -0.2748455278054546
        ],
        [
          0.2916867161598309,
          -1.2361856278296102,
          -0.23897104222989568,
          1.308136261980867,
          0.8060849710090168,
          0.20782022756867496,
          1.517086545702109,
          0.5911725606888976
        ],
        [
          -0.19140391588581243,
          -1.2898137928357332,
          -1.4797257906745989,
          -0.2889680129808097,
          0.11500473894886487,
          0.8893144099577474,
          -0.5398396294452483,
          -1.2304079086283757
        ],
        [
          -0.9357125143290335,
          -0.39805776818728644,
          -0.3148750785342298,
          -1.0530890355963383,
          1.1252847958835506,
          -1.4906643183547001,
          -0.015932754672893457,
          0.23004924745543354
        ]
      ]
    ],
    "biases": [
      [
        0.13976988776258664,
        0.9222439778193944,
        0.34822069201305467,
        0.21570829152880178,
        0.5532503574776807,
        -0.6586789681869061,
        -1.0223853722535727,
        -1.6
      ],
      [
        -0.3640794340361241,
        1.087454205399099,
        0.8004085549140674,
        1.2189899881176818,
        1.4139769195632803,
        0.3325645195567576,
        -1.1617829092648735,
        -0.1588922268941461
      ],
      [
        -0.31508656958658154,
        -0.7535593893110759,
        0.49169842616784865,
        -0.47153574407330684,
        0.29694970417240446,
        0.31026829381202026,
        -0.5780402251881458,
        0.7531780236891299
      ],
      [
        -0.4376664412522574,
        -0.4533071058963702,
        1.6,
        -1.4524777464707506,
        -0.8417318206199005,
        -0.9570752796381543,
        0.26676795098578,
        0.8416346405386517
      ]
    ]
  }
};
