{
  "kind": "retro-neural-lab-brain-bank-specimen",
  "version": 1,
  "exportedAt": "2026-03-30T01:02:10.821Z",
  "metadata": {
    "displayName": "Longest-Lived C-106",
    "origin": "sampled",
    "fileName": "c-106-g-03-age-06693f-20260329-180210.json",
    "sourceCreatureId": 106,
    "sampledTick": 33254,
    "ageFrames": 6693,
    "generation": 3,
    "hue": 47.022732915317135,
    "segmentGene": 8
  },
  "specimen": {
    "x": 936.208811449945,
    "y": 475.1073264825166,
    "heading": 37.52538571188346,
    "hue": 47.022732915317135,
    "energy": 13.405875469105148,
    "age": 6693,
    "generation": 3,
    "segmentGene": 8,
    "lifeStage": "adult",
    "brain": {
      "weights": [
        [
          [
            0.6151065918112961,
            0.6929149264440353,
            -0.9105135425128462,
            -0.21252662755415686,
            0.7959214522759954,
            0.6291665588961928,
            -0.7886067791566389,
            -0.25582492692103975,
            -0.5281249306343819,
            -0.02268375584971216,
            0.30269755974658774,
            0.0832360657015434,
            0.5245719244283094,
            1.1194222779326477,
            0.39865910617336975,
            0.33194768516150286
          ],
          [
            0.2516322764287038,
            0.023110519944822938,
            -0.8518207802856597,
            -0.22247801969731956,
            -0.8388242320374166,
            0.8243911646910329,
            -0.0652244276410579,
            0.06269549639735583,
            -0.8708856239344764,
            -0.006643555688693237,
            -0.5794953754660075,
            0.0853005164150652,
            -0.5135166541662843,
            -0.036068024073034444,
            0.9310761151704212,
            -0.722386978809775
          ],
          [
            0.6579777224554473,
            0.15897372717431346,
            -0.6193187976242271,
            -0.40529075503771006,
            0.6443578089158013,
            -0.2985960975467874,
            0.1421487504736263,
            0.4804106899977014,
            -0.6223418685437268,
            0.12234706635540182,
            -0.8576457374793964,
            -0.768994208001855,
            0.7259039763067006,
            -0.23151680551820664,
            -0.4962269618001245,
            -0.19757782963376924
          ],
          [
            0.5929084052071376,
            -0.9882171987754855,
            -0.09021338297149573,
            -0.09772777689665224,
            0.6261625868075691,
            1.200239846479314,
            0.7323232428650561,
            0.5440002306078979,
            -0.6951937110376127,
            -0.14849026461668804,
            0.2838560837956279,
            -0.7798352163909479,
            -0.4926732044810511,
            -0.3581217857119632,
            -0.7198635739277797,
            0.06958354375723141
          ],
          [
            0.11856597859699369,
            0.7243976664759402,
            0.002185600593541004,
            0.8738600738153175,
            -0.3506164754302563,
            -0.2504932783894902,
            -0.20529797012657935,
            0.6835424121584339,
            -0.016003535702270977,
            0.5519683340110981,
            -0.001194902547965837,
            0.06352834478600378,
            -0.8139068927521318,
            -0.7334872061131914,
            -0.8467761937913327,
            0.48792708914373784
          ],
          [
            0.6588118261809734,
            0.11563693868830383,
            0.4171500187368269,
            0.22391354198567992,
            0.0764431120012421,
            0.9013137875555302,
            -0.24154696382512272,
            0.768661785958324,
            0.5163438744068656,
            0.9094788861903447,
            0.7255935949996353,
            -0.9973869278120342,
            0.35084854963506706,
            0.2301274975340709,
            0.4115628981711448,
            -0.8598014041344555
          ],
          [
            0.7419074758179762,
            -0.8676096833579341,
            -0.12776976593287936,
            -0.31562923723989433,
            0.4012611549395333,
            0.4849371227644126,
            0.7268611748157885,
            -0.46053693156459463,
            -0.4928589249403553,
            0.25581790308978747,
            0.39133143023975037,
            0.7694521084930979,
            -0.35461232265636833,
            -0.685249629835561,
            0.7706763678712256,
            -0.9763644664034348
          ],
          [
            -0.17882539529707553,
            0.22773713507539872,
            -0.21351759217016353,
            0.9973320438421012,
            -0.12195039851944411,
            0.8113444361761614,
            -0.9804812404749899,
            0.8879344704635057,
            -0.09944784261875528,
            -0.5143086251114117,
            -0.06151418202612802,
            0.3966659493626825,
            0.7999268581569994,
            -0.4611942368553845,
            0.3688323938913467,
            -0.672476828194158
          ]
        ],
        [
          [
            -0.1407841032897018,
            -0.9463430597414888,
            0.13049054212623368,
            0.9713712749054872,
            -0.6478863027749002,
            -0.6726331814775957,
            -0.5810171856527768,
            -0.14815406117022303
          ],
          [
            0.2697860306966011,
            -0.21535033068819964,
            -0.7647185167619943,
            -0.731927068521057,
            0.06884585569329049,
            -0.9971243628894465,
            -0.25192250007455386,
            0.696003124756486
          ],
          [
            -0.6050928639984081,
            0.20546692445031933,
            -0.0019083246543218912,
            0.47170309217444584,
            -0.21807881418226516,
            0.9603275551830632,
            0.5276469995289275,
            -0.6580069922814984
          ],
          [
            -0.018144344384509514,
            0.2863082110308277,
            0.6967658804094008,
            -0.7911927640071803,
            -0.9489667667564741,
            -0.11710655161206063,
            -0.5658495007944164,
            0.4971296853119318
          ],
          [
            -0.040558803126255816,
            -0.7806502273488196,
            -0.354431023442458,
            0.6834221307222705,
            -0.8134576077567762,
            -0.45727071400905595,
            0.08677447797394855,
            0.7779623605617497
          ],
          [
            0.43720047881964685,
            -0.53017463018069,
            -0.5183247055737354,
            0.3689986989944454,
            -0.6911621857890318,
            0.25295711313079017,
            -0.6583713191837579,
            -0.22915854260818724
          ],
          [
            0.8035211710144567,
            0.22478451741419248,
            -0.7816464062614281,
            -0.9621406852276972,
            -0.3447221416691484,
            0.8277898284480967,
            -0.006274225826921276,
            -0.04817624435924128
          ],
          [
            0.25369296074243763,
            0.15103573546240612,
            -0.01037610488272045,
            0.7815313209117536,
            0.21835201381269265,
            -0.3588019630287417,
            -0.8904453112943593,
            -0.4483128017879039
          ]
        ],
        [
          [
            0.9776188594695452,
            0.46441265635954965,
            0.3565375965996156,
            0.7814656963672069,
            -0.7302522548234769,
            0.2930769557547068,
            -0.337531043044931,
            -0.08279925037344915
          ],
          [
            -0.4704785000508398,
            -0.6270802932443584,
            -0.8611575107532208,
            -0.6879829665917656,
            0.90014693845786,
            -0.6589131187061148,
            -0.2580254102926467,
            0.4509734206469096
          ],
          [
            0.7400575843478889,
            -0.05962617524079783,
            1.2634120456125113,
            0.5530666738732555,
            0.9384459221297727,
            0.28912031675161454,
            -0.14312725397479098,
            -0.45616287468896793
          ],
          [
            0.0819856131978447,
            -0.6165015598533401,
            -0.5311157512910674,
            -0.48766117411069887,
            -0.6313090684116437,
            -0.9806490055682038,
            0.03156939171188955,
            0.5372479801831131
          ],
          [
            -0.8335450430790197,
            0.15696376881577567,
            -0.09434532893886116,
            -0.12237367038249958,
            -0.8500239913466969,
            -0.5347982578111534,
            0.467538970993419,
            -0.26627439268233344
          ],
          [
            0.7606908394720093,
            0.6648366324104311,
            -0.5836086494026493,
            0.5568651025552211,
            -0.8873018011877345,
            -0.38073823589533684,
            -0.27120157826696234,
            -0.6621057714685146
          ],
          [
            0.5308862119218537,
            -0.5488461799668469,
            0.8123233340269089,
            0.34610007884357064,
            0.5963060930395776,
            -0.4254664421546922,
            0.48919812983257716,
            -0.12752355964192436
          ],
          [
            0.8100539708538134,
            0.1770882652469481,
            0.6033699330680762,
            -0.40592987328897556,
            0.6383938777186915,
            0.3338227641004863,
            -0.14192665575424568,
            0.5150444703140382
          ]
        ],
        [
          [
            -0.16575796926744735,
            -0.17178615403958253,
            -0.3556991954187516,
            0.25780224216135944,
            0.2681151298819915,
            0.009150875171295425,
            -0.01327080473782205,
            -0.48803494404299574
          ],
          [
            -1.0146388759950884,
            -0.2402494959354624,
            0.8350109309322522,
            -0.13802627214753715,
            0.3019383263430857,
            0.6481827892020982,
            -0.799205343595567,
            0.2330822447483154
          ],
          [
            -0.40402210510618214,
            -0.5489317094588624,
            -0.3802691492960617,
            0.47093098674082734,
            0.164499586112258,
            0.7056756342229542,
            0.0894393703266334,
            -1.0014890455598033
          ],
          [
            0.889957234674478,
            0.8703763484482063,
            0.9721803655193388,
            0.4634602755139343,
            0.9997859598723549,
            0.5247500817290693,
            -0.39892139933685344,
            -0.5970524426934103
          ],
          [
            0.6215073903076149,
            -0.2982739788419373,
            0.024788065648741253,
            0.6337463123671545,
            -0.14888291816041493,
            0.1030672869163074,
            -0.6757035385711572,
            0.6960683504280152
          ],
          [
            -0.8624486047880153,
            0.3917630969269419,
            -0.9864281723968149,
            -0.13240776694691642,
            0.7494574162664202,
            -0.49563481105898954,
            -0.3054942516548549,
            -0.5816471433150339
          ],
          [
            -0.08769681664359985,
            0.9766208719107811,
            -0.5709472182505118,
            -0.3975350962857185,
            0.5843318599851322,
            -0.6435436869639228,
            0.26605587167836675,
            0.6634265016911023
          ],
          [
            -0.5590125261815735,
            -0.7723213669952047,
            0.649643996589309,
            0.9689389075986903,
            0.7016680976469325,
            -0.14325316215311323,
            -0.05023045217849087,
            0.7287838900214025
          ]
        ]
      ],
      "biases": [
        [
          -0.9126649390952521,
          0.6936674057960068,
          -0.7770381832958234,
          0.03511505245211943,
          -0.5418295907092445,
          -0.2971280801682681,
          0.5529030928625391,
          0.7716399524325281
        ],
        [
          -0.060437654312628375,
          -0.30552535133529535,
          0.6392760433461624,
          0.47192329584141657,
          -0.31856809261348085,
          -0.07049390281956458,
          0.5501808645233663,
          -0.27381369895170193
        ],
        [
          0.752360692223845,
          -0.46842166253462625,
          -0.5965991467777041,
          0.01918749007951348,
          0.06402248761006346,
          -0.36807506834771253,
          0.5727655893388486,
          -0.739105036570523
        ],
        [
          -0.10152287762417322,
          0.20629524933464172,
          -0.6215754663341675,
          -0.39672597526866027,
          0.7145183427586557,
          -0.637159080580036,
          -0.8864326817385493,
          -0.4021139136769015
        ]
      ]
    }
  },
  "brain": {
    "weights": [
      [
        [
          0.6151065918112961,
          0.6929149264440353,
          -0.9105135425128462,
          -0.21252662755415686,
          0.7959214522759954,
          0.6291665588961928,
          -0.7886067791566389,
          -0.25582492692103975,
          -0.5281249306343819,
          -0.02268375584971216,
          0.30269755974658774,
          0.0832360657015434,
          0.5245719244283094,
          1.1194222779326477,
          0.39865910617336975,
          0.33194768516150286
        ],
        [
          0.2516322764287038,
          0.023110519944822938,
          -0.8518207802856597,
          -0.22247801969731956,
          -0.8388242320374166,
          0.8243911646910329,
          -0.0652244276410579,
          0.06269549639735583,
          -0.8708856239344764,
          -0.006643555688693237,
          -0.5794953754660075,
          0.0853005164150652,
          -0.5135166541662843,
          -0.036068024073034444,
          0.9310761151704212,
          -0.722386978809775
        ],
        [
          0.6579777224554473,
          0.15897372717431346,
          -0.6193187976242271,
          -0.40529075503771006,
          0.6443578089158013,
          -0.2985960975467874,
          0.1421487504736263,
          0.4804106899977014,
          -0.6223418685437268,
          0.12234706635540182,
          -0.8576457374793964,
          -0.768994208001855,
          0.7259039763067006,
          -0.23151680551820664,
          -0.4962269618001245,
          -0.19757782963376924
        ],
        [
          0.5929084052071376,
          -0.9882171987754855,
          -0.09021338297149573,
          -0.09772777689665224,
          0.6261625868075691,
          1.200239846479314,
          0.7323232428650561,
          0.5440002306078979,
          -0.6951937110376127,
          -0.14849026461668804,
          0.2838560837956279,
          -0.7798352163909479,
          -0.4926732044810511,
          -0.3581217857119632,
          -0.7198635739277797,
          0.06958354375723141
        ],
        [
          0.11856597859699369,
          0.7243976664759402,
          0.002185600593541004,
          0.8738600738153175,
          -0.3506164754302563,
          -0.2504932783894902,
          -0.20529797012657935,
          0.6835424121584339,
          -0.016003535702270977,
          0.5519683340110981,
          -0.001194902547965837,
          0.06352834478600378,
          -0.8139068927521318,
          -0.7334872061131914,
          -0.8467761937913327,
          0.48792708914373784
        ],
        [
          0.6588118261809734,
          0.11563693868830383,
          0.4171500187368269,
          0.22391354198567992,
          0.0764431120012421,
          0.9013137875555302,
          -0.24154696382512272,
          0.768661785958324,
          0.5163438744068656,
          0.9094788861903447,
          0.7255935949996353,
          -0.9973869278120342,
          0.35084854963506706,
          0.2301274975340709,
          0.4115628981711448,
          -0.8598014041344555
        ],
        [
          0.7419074758179762,
          -0.8676096833579341,
          -0.12776976593287936,
          -0.31562923723989433,
          0.4012611549395333,
          0.4849371227644126,
          0.7268611748157885,
          -0.46053693156459463,
          -0.4928589249403553,
          0.25581790308978747,
          0.39133143023975037,
          0.7694521084930979,
          -0.35461232265636833,
          -0.685249629835561,
          0.7706763678712256,
          -0.9763644664034348
        ],
        [
          -0.17882539529707553,
          0.22773713507539872,
          -0.21351759217016353,
          0.9973320438421012,
          -0.12195039851944411,
          0.8113444361761614,
          -0.9804812404749899,
          0.8879344704635057,
          -0.09944784261875528,
          -0.5143086251114117,
          -0.06151418202612802,
          0.3966659493626825,
          0.7999268581569994,
          -0.4611942368553845,
          0.3688323938913467,
          -0.672476828194158
        ]
      ],
      [
        [
          -0.1407841032897018,
          -0.9463430597414888,
          0.13049054212623368,
          0.9713712749054872,
          -0.6478863027749002,
          -0.6726331814775957,
          -0.5810171856527768,
          -0.14815406117022303
        ],
        [
          0.2697860306966011,
          -0.21535033068819964,
          -0.7647185167619943,
          -0.731927068521057,
          0.06884585569329049,
          -0.9971243628894465,
          -0.25192250007455386,
          0.696003124756486
        ],
        [
          -0.6050928639984081,
          0.20546692445031933,
          -0.0019083246543218912,
          0.47170309217444584,
          -0.21807881418226516,
          0.9603275551830632,
          0.5276469995289275,
          -0.6580069922814984
        ],
        [
          -0.018144344384509514,
          0.2863082110308277,
          0.6967658804094008,
          -0.7911927640071803,
          -0.9489667667564741,
          -0.11710655161206063,
          -0.5658495007944164,
          0.4971296853119318
        ],
        [
          -0.040558803126255816,
          -0.7806502273488196,
          -0.354431023442458,
          0.6834221307222705,
          -0.8134576077567762,
          -0.45727071400905595,
          0.08677447797394855,
          0.7779623605617497
        ],
        [
          0.43720047881964685,
          -0.53017463018069,
          -0.5183247055737354,
          0.3689986989944454,
          -0.6911621857890318,
          0.25295711313079017,
          -0.6583713191837579,
          -0.22915854260818724
        ],
        [
          0.8035211710144567,
          0.22478451741419248,
          -0.7816464062614281,
          -0.9621406852276972,
          -0.3447221416691484,
          0.8277898284480967,
          -0.006274225826921276,
          -0.04817624435924128
        ],
        [
          0.25369296074243763,
          0.15103573546240612,
          -0.01037610488272045,
          0.7815313209117536,
          0.21835201381269265,
          -0.3588019630287417,
          -0.8904453112943593,
          -0.4483128017879039
        ]
      ],
      [
        [
          0.9776188594695452,
          0.46441265635954965,
          0.3565375965996156,
          0.7814656963672069,
          -0.7302522548234769,
          0.2930769557547068,
          -0.337531043044931,
          -0.08279925037344915
        ],
        [
          -0.4704785000508398,
          -0.6270802932443584,
          -0.8611575107532208,
          -0.6879829665917656,
          0.90014693845786,
          -0.6589131187061148,
          -0.2580254102926467,
          0.4509734206469096
        ],
        [
          0.7400575843478889,
          -0.05962617524079783,
          1.2634120456125113,
          0.5530666738732555,
          0.9384459221297727,
          0.28912031675161454,
          -0.14312725397479098,
          -0.45616287468896793
        ],
        [
          0.0819856131978447,
          -0.6165015598533401,
          -0.5311157512910674,
          -0.48766117411069887,
          -0.6313090684116437,
          -0.9806490055682038,
          0.03156939171188955,
          0.5372479801831131
        ],
        [
          -0.8335450430790197,
          0.15696376881577567,
          -0.09434532893886116,
          -0.12237367038249958,
          -0.8500239913466969,
          -0.5347982578111534,
          0.467538970993419,
          -0.26627439268233344
        ],
        [
          0.7606908394720093,
          0.6648366324104311,
          -0.5836086494026493,
          0.5568651025552211,
          -0.8873018011877345,
          -0.38073823589533684,
          -0.27120157826696234,
          -0.6621057714685146
        ],
        [
          0.5308862119218537,
          -0.5488461799668469,
          0.8123233340269089,
          0.34610007884357064,
          0.5963060930395776,
          -0.4254664421546922,
          0.48919812983257716,
          -0.12752355964192436
        ],
        [
          0.8100539708538134,
          0.1770882652469481,
          0.6033699330680762,
          -0.40592987328897556,
          0.6383938777186915,
          0.3338227641004863,
          -0.14192665575424568,
          0.5150444703140382
        ]
      ],
      [
        [
          -0.16575796926744735,
          -0.17178615403958253,
          -0.3556991954187516,
          0.25780224216135944,
          0.2681151298819915,
          0.009150875171295425,
          -0.01327080473782205,
          -0.48803494404299574
        ],
        [
          -1.0146388759950884,
          -0.2402494959354624,
          0.8350109309322522,
          -0.13802627214753715,
          0.3019383263430857,
          0.6481827892020982,
          -0.799205343595567,
          0.2330822447483154
        ],
        [
          -0.40402210510618214,
          -0.5489317094588624,
          -0.3802691492960617,
          0.47093098674082734,
          0.164499586112258,
          0.7056756342229542,
          0.0894393703266334,
          -1.0014890455598033
        ],
        [
          0.889957234674478,
          0.8703763484482063,
          0.9721803655193388,
          0.4634602755139343,
          0.9997859598723549,
          0.5247500817290693,
          -0.39892139933685344,
          -0.5970524426934103
        ],
        [
          0.6215073903076149,
          -0.2982739788419373,
          0.024788065648741253,
          0.6337463123671545,
          -0.14888291816041493,
          0.1030672869163074,
          -0.6757035385711572,
          0.6960683504280152
        ],
        [
          -0.8624486047880153,
          0.3917630969269419,
          -0.9864281723968149,
          -0.13240776694691642,
          0.7494574162664202,
          -0.49563481105898954,
          -0.3054942516548549,
          -0.5816471433150339
        ],
        [
          -0.08769681664359985,
          0.9766208719107811,
          -0.5709472182505118,
          -0.3975350962857185,
          0.5843318599851322,
          -0.6435436869639228,
          0.26605587167836675,
          0.6634265016911023
        ],
        [
          -0.5590125261815735,
          -0.7723213669952047,
          0.649643996589309,
          0.9689389075986903,
          0.7016680976469325,
          -0.14325316215311323,
          -0.05023045217849087,
          0.7287838900214025
        ]
      ]
    ],
    "biases": [
      [
        -0.9126649390952521,
        0.6936674057960068,
        -0.7770381832958234,
        0.03511505245211943,
        -0.5418295907092445,
        -0.2971280801682681,
        0.5529030928625391,
        0.7716399524325281
      ],
      [
        -0.060437654312628375,
        -0.30552535133529535,
        0.6392760433461624,
        0.47192329584141657,
        -0.31856809261348085,
        -0.07049390281956458,
        0.5501808645233663,
        -0.27381369895170193
      ],
      [
        0.752360692223845,
        -0.46842166253462625,
        -0.5965991467777041,
        0.01918749007951348,
        0.06402248761006346,
        -0.36807506834771253,
        0.5727655893388486,
        -0.739105036570523
      ],
      [
        -0.10152287762417322,
        0.20629524933464172,
        -0.6215754663341675,
        -0.39672597526866027,
        0.7145183427586557,
        -0.637159080580036,
        -0.8864326817385493,
        -0.4021139136769015
      ]
    ]
  }
}